<?xml version="1.0"?>
<opencv_storage>
<cascade>
  <stageType>BOOST</stageType>
  <featureType>HAAR</featureType>
  <height>24</height>
  <width>24</width>
  <stageParams>
    <boostType>GAB</boostType>
    <minHitRate>9.9900001287460327e-01</minHitRate>
    <maxFalseAlarm>3.0000001192092896e-01</maxFalseAlarm>
    <weightTrimRate>9.4999999999999996e-01</weightTrimRate>
    <maxDepth>1</maxDepth>
    <maxWeakCount>100</maxWeakCount></stageParams>
  <featureParams>
    <maxCatCount>0</maxCatCount>
    <featSize>1</featSize>
    <mode>BASIC</mode></featureParams>
  <stageNum>12</stageNum>
  <stages>
    <!-- stage 0 -->
    <_>
      <maxWeakCount>1</maxWeakCount>
      <stageThreshold>1.</stageThreshold>
      <weakClassifiers>
        <_>
          <internalNodes>
            0 -1 7 3.5139486193656921e-02</internalNodes>
          <leafValues>
            -1. 1.</leafValues></_></weakClassifiers></_>
    <!-- stage 1 -->
    <_>
      <maxWeakCount>2</maxWeakCount>
      <stageThreshold>6.0607377439737320e-02</stageThreshold>
      <weakClassifiers>
        <_>
          <internalNodes>
            0 -1 14 -2.4832181632518768e-02</internalNodes>
          <leafValues>
            1. -9.3548387289047241e-01</leafValues></_>
        <_>
          <internalNodes>
            0 -1 19 -6.3530333340167999e-02</internalNodes>
          <leafValues>
            1. -9.3939262628555298e-01</leafValues></_></weakClassifiers></_>
    <!-- stage 2 -->
    <_>
      <maxWeakCount>1</maxWeakCount>
      <stageThreshold>7.6470589637756348e-01</stageThreshold>
      <weakClassifiers>
        <_>
          <internalNodes>
            0 -1 15 -1.2070210650563240e-02</internalNodes>
          <leafValues>
            7.6470589637756348e-01 -1.</leafValues></_></weakClassifiers></_>
    <!-- stage 3 -->
    <_>
      <maxWeakCount>2</maxWeakCount>
      <stageThreshold>1.2500000000000000e-01</stageThreshold>
      <weakClassifiers>
        <_>
          <internalNodes>
            0 -1 16 1.9615329802036285e-02</internalNodes>
          <leafValues>
            -8.7500000000000000e-01 1.</leafValues></_>
        <_>
          <internalNodes>
            0 -1 8 5.5120978504419327e-02</internalNodes>
          <leafValues>
            -8.3781349658966064e-01 1.</leafValues></_></weakClassifiers></_>
    <!-- stage 4 -->
    <_>
      <maxWeakCount>2</maxWeakCount>
      <stageThreshold>1.8181818723678589e-01</stageThreshold>
      <weakClassifiers>
        <_>
          <internalNodes>
            0 -1 1 -8.1231403350830078e-01</internalNodes>
          <leafValues>
            -8.1818181276321411e-01 1.</leafValues></_>
        <_>
          <internalNodes>
            0 -1 0 2.8814418241381645e-02</internalNodes>
          <leafValues>
            -7.9990935325622559e-01 1.</leafValues></_></weakClassifiers></_>
    <!-- stage 5 -->
    <_>
      <maxWeakCount>2</maxWeakCount>
      <stageThreshold>-1.1220090836286545e-01</stageThreshold>
      <weakClassifiers>
        <_>
          <internalNodes>
            0 -1 9 4.7845174558460712e-03</internalNodes>
          <leafValues>
            -9.3333333730697632e-01 8.6666667461395264e-01</leafValues></_>
        <_>
          <internalNodes>
            0 -1 11 -1.5110045205801725e-03</internalNodes>
          <leafValues>
            8.2113242149353027e-01 -9.3733978271484375e-01</leafValues></_></weakClassifiers></_>
    <!-- stage 6 -->
    <_>
      <maxWeakCount>2</maxWeakCount>
      <stageThreshold>-3.3768620342016220e-02</stageThreshold>
      <weakClassifiers>
        <_>
          <internalNodes>
            0 -1 2 -4.7162525355815887e-02</internalNodes>
          <leafValues>
            8.5714286565780640e-01 -8.7096774578094482e-01</leafValues></_>
        <_>
          <internalNodes>
            0 -1 5 -5.6429347023367882e-03</internalNodes>
          <leafValues>
            8.3719915151596069e-01 -8.8297933340072632e-01</leafValues></_></weakClassifiers></_>
    <!-- stage 7 -->
    <_>
      <maxWeakCount>2</maxWeakCount>
      <stageThreshold>3.4977514296770096e-02</stageThreshold>
      <weakClassifiers>
        <_>
          <internalNodes>
            0 -1 18 -6.5615743398666382e-02</internalNodes>
          <leafValues>
            1. -8.7500000000000000e-01</leafValues></_>
        <_>
          <internalNodes>
            0 -1 13 1.6368251293897629e-02</internalNodes>
          <leafValues>
            -8.8525962829589844e-01 9.0997749567031860e-01</leafValues></_></weakClassifiers></_>
    <!-- stage 8 -->
    <_>
      <maxWeakCount>2</maxWeakCount>
      <stageThreshold>-8.0157093703746796e-02</stageThreshold>
      <weakClassifiers>
        <_>
          <internalNodes>
            0 -1 3 4.6277809888124466e-03</internalNodes>
          <leafValues>
            -9.3103450536727905e-01 7.5000000000000000e-01</leafValues></_>
        <_>
          <internalNodes>
            0 -1 17 -1.4753952622413635e-01</internalNodes>
          <leafValues>
            1. -8.3015710115432739e-01</leafValues></_></weakClassifiers></_>
    <!-- stage 9 -->
    <_>
      <maxWeakCount>2</maxWeakCount>
      <stageThreshold>2.5319552049040794e-02</stageThreshold>
      <weakClassifiers>
        <_>
          <internalNodes>
            0 -1 6 6.4019218087196350e-02</internalNodes>
          <leafValues>
            -7.6470589637756348e-01 1.</leafValues></_>
        <_>
          <internalNodes>
            0 -1 10 1.3854586519300938e-02</internalNodes>
          <leafValues>
            -8.8938844203948975e-01 7.9002541303634644e-01</leafValues></_></weakClassifiers></_>
    <!-- stage 10 -->
    <_>
      <maxWeakCount>2</maxWeakCount>
      <stageThreshold>2.3529411852359772e-01</stageThreshold>
      <weakClassifiers>
        <_>
          <internalNodes>
            0 -1 12 -6.7086378112435341e-03</internalNodes>
          <leafValues>
            1. -7.6470589637756348e-01</leafValues></_>
        <_>
          <internalNodes>
            0 -1 20 -1.4972264878451824e-02</internalNodes>
          <leafValues>
            1. -6.5185928344726563e-01</leafValues></_></weakClassifiers></_>
    <!-- stage 11 -->
    <_>
      <maxWeakCount>2</maxWeakCount>
      <stageThreshold>1.3024253770709038e-02</stageThreshold>
      <weakClassifiers>
        <_>
          <internalNodes>
            0 -1 4 -5.2681826055049896e-02</internalNodes>
          <leafValues>
            -7.6470589637756348e-01 1.</leafValues></_>
        <_>
          <internalNodes>
            0 -1 21 7.8568852040916681e-04</internalNodes>
          <leafValues>
            -7.9037058353424072e-01 7.7773010730743408e-01</leafValues></_></weakClassifiers></_></stages>
  <features>
    <_>
      <rects>
        <_>
          0 2 15 4 -1.</_>
        <_>
          0 4 15 2 2.</_></rects>
      <tilted>0</tilted></_>
    <_>
      <rects>
        <_>
          1 1 21 18 -1.</_>
        <_>
          1 7 21 6 2.</_></rects>
      <tilted>0</tilted></_>
    <_>
      <rects>
        <_>
          1 12 23 4 -1.</_>
        <_>
          1 14 23 2 2.</_></rects>
      <tilted>0</tilted></_>
    <_>
      <rects>
        <_>
          2 13 6 1 -1.</_>
        <_>
          5 13 3 1 2.</_></rects>
      <tilted>0</tilted></_>
    <_>
      <rects>
        <_>
          2 15 18 4 -1.</_>
        <_>
          8 15 6 4 2.</_></rects>
      <tilted>0</tilted></_>
    <_>
      <rects>
        <_>
          3 13 7 2 -1.</_>
        <_>
          3 14 7 1 2.</_></rects>
      <tilted>0</tilted></_>
    <_>
      <rects>
        <_>
          3 15 10 4 -1.</_>
        <_>
          8 15 5 4 2.</_></rects>
      <tilted>0</tilted></_>
    <_>
      <rects>
        <_>
          4 1 10 18 -1.</_>
        <_>
          9 1 5 18 2.</_></rects>
      <tilted>0</tilted></_>
    <_>
      <rects>
        <_>
          4 17 10 5 -1.</_>
        <_>
          9 17 5 5 2.</_></rects>
      <tilted>0</tilted></_>
    <_>
      <rects>
        <_>
          5 6 1 8 -1.</_>
        <_>
          5 10 1 4 2.</_></rects>
      <tilted>0</tilted></_>
    <_>
      <rects>
        <_>
          5 7 4 8 -1.</_>
        <_>
          5 11 4 4 2.</_></rects>
      <tilted>0</tilted></_>
    <_>
      <rects>
        <_>
          5 9 4 3 -1.</_>
        <_>
          7 9 2 3 2.</_></rects>
      <tilted>0</tilted></_>
    <_>
      <rects>
        <_>
          5 20 7 2 -1.</_>
        <_>
          5 21 7 1 2.</_></rects>
      <tilted>0</tilted></_>
    <_>
      <rects>
        <_>
          6 3 6 3 -1.</_>
        <_>
          9 3 3 3 2.</_></rects>
      <tilted>0</tilted></_>
    <_>
      <rects>
        <_>
          6 8 14 12 -1.</_>
        <_>
          6 8 7 6 2.</_>
        <_>
          13 14 7 6 2.</_></rects>
      <tilted>0</tilted></_>
    <_>
      <rects>
        <_>
          7 4 12 4 -1.</_>
        <_>
          13 4 6 4 2.</_></rects>
      <tilted>0</tilted></_>
    <_>
      <rects>
        <_>
          10 8 7 6 -1.</_>
        <_>
          10 11 7 3 2.</_></rects>
      <tilted>0</tilted></_>
    <_>
      <rects>
        <_>
          10 10 14 11 -1.</_>
        <_>
          17 10 7 11 2.</_></rects>
      <tilted>0</tilted></_>
    <_>
      <rects>
        <_>
          11 7 10 12 -1.</_>
        <_>
          11 7 5 6 2.</_>
        <_>
          16 13 5 6 2.</_></rects>
      <tilted>0</tilted></_>
    <_>
      <rects>
        <_>
          12 9 12 13 -1.</_>
        <_>
          18 9 6 13 2.</_></rects>
      <tilted>0</tilted></_>
    <_>
      <rects>
        <_>
          16 6 8 4 -1.</_>
        <_>
          16 6 4 2 2.</_>
        <_>
          20 8 4 2 2.</_></rects>
      <tilted>0</tilted></_>
    <_>
      <rects>
        <_>
          19 4 2 2 -1.</_>
        <_>
          19 5 2 1 2.</_></rects>
      <tilted>0</tilted></_></features></cascade>
</opencv_storage>
